#ifndef WEIGHTS_H
#define WEIGHTS_H

#include <stdint.h>

const float layer1_weights[16] = {0.361890f,0.136265f,0.675704f,-0.395012f,-0.083710f,0.149160f,-0.183824f,0.495126f,-0.394487f,-0.542404f,-0.101386f,0.247027f,0.292353f,-0.145573f,-0.143207f,0.177946f};

const float layer1_bias[16] = {-0.016289f,0.023931f,-0.415110f,0.000000f,0.000000f,0.838186f,0.000000f,-0.570469f,0.000000f,0.000000f,0.000000f,-0.764703f,-0.363252f,0.000000f,0.000000f,0.214767f};

const float layer2_weights[256] = {-0.166025f,0.169593f,-0.245408f,0.390444f,-0.073697f,-0.212774f,0.297867f,0.279876f,-0.049459f,-0.261604f,-0.376379f,-0.273605f,0.050836f,-0.107164f,0.371499f,-0.258925f,-0.421557f,-0.284430f,0.315933f,0.386111f,0.252323f,-0.065944f,0.238970f,0.107867f,0.182869f,0.170694f,0.423095f,0.027673f,0.306400f,0.008569f,-0.285702f,0.031285f,0.184349f,-0.299521f,-0.330951f,0.227607f,-0.267337f,0.027289f,0.329368f,0.115392f,0.259330f,-0.279972f,-0.129884f,0.350171f,-0.135863f,0.112957f,0.058476f,-0.113608f,0.150366f,0.235682f,0.013337f,-0.066640f,0.380008f,0.279249f,-0.424102f,-0.278026f,0.004361f,-0.411990f,0.258902f,-0.747335f,-0.054534f,-0.323755f,0.036520f,-0.180040f,-0.040455f,0.362709f,0.194505f,0.243173f,0.107511f,-0.541443f,0.270369f,0.150861f,-0.101722f,0.136746f,-0.020708f,0.549804f,0.405445f,0.253141f,-0.145453f,0.078717f,-0.429455f,-0.046351f,-0.494797f,-0.182070f,0.184061f,0.596802f,0.419572f,-0.445626f,-0.337330f,-0.431266f,0.325465f,-0.630983f,-0.295902f,0.305108f,-0.070792f,0.758241f,-0.428254f,-0.095245f,-0.115794f,0.398578f,0.135451f,-0.078149f,-0.367129f,0.091754f,0.354242f,-0.213008f,0.335866f,-0.268445f,-0.257591f,-0.103610f,0.058314f,-0.046092f,-0.326705f,-0.356984f,-0.394721f,-0.247724f,0.402757f,-0.207109f,-0.124652f,-0.225538f,0.158026f,0.149623f,-0.288570f,-0.104273f,0.359660f,0.206398f,0.058182f,0.230207f,0.012233f,-0.312741f,-0.163021f,0.076525f,0.270480f,-0.334916f,-0.133384f,-0.266096f,-0.167437f,0.359057f,0.001642f,-0.153558f,-0.276429f,0.136569f,0.376268f,-0.288732f,-0.601416f,-0.356149f,-0.763236f,0.081963f,0.393071f,0.786320f,-0.213727f,-0.525603f,-0.408515f,0.302067f,0.102812f,-0.258352f,0.209167f,0.020933f,-0.154794f,0.523725f,0.399829f,-0.428144f,-0.405117f,-0.107841f,-0.129894f,-0.276759f,0.156089f,0.020460f,0.027377f,0.219222f,-0.260555f,0.065679f,-0.199394f,0.145371f,0.250716f,0.147361f,0.297389f,0.230330f,0.080285f,-0.262887f,0.263822f,0.211409f,0.242557f,-0.306360f,0.001580f,0.333465f,0.178729f,-0.321902f,-0.272760f,0.067782f,0.316308f,0.177978f,0.201563f,0.041637f,-0.191868f,0.316405f,0.109799f,-0.412175f,-0.378067f,-0.149096f,-0.305012f,0.155480f,0.152205f,-0.371427f,-0.371619f,-0.088352f,0.176519f,0.424914f,0.282555f,0.351451f,-0.418297f,-0.244653f,-0.130010f,0.384762f,-0.170083f,0.118028f,-0.045028f,-0.129080f,-0.415034f,-0.304434f,-0.230545f,-0.070955f,0.357447f,-0.127225f,0.153819f,-0.283863f,0.171726f,0.260945f,-0.124526f,0.269769f,-0.356325f,0.276342f,-0.287612f,0.198629f,-0.186025f,-0.110932f,0.228086f,-0.028819f,0.326764f,0.155528f,0.258825f,0.106551f,-0.077790f,0.117688f,-0.245130f,-0.385516f,0.305139f,-0.308543f,-0.276829f,-0.431836f,-0.237691f,0.062263f,-0.009915f,-0.049311f,-0.226873f,0.141421f};

const float layer2_bias[16] = {0.000000f,0.193786f,-0.010022f,0.318071f,-0.536246f,0.726425f,0.000000f,-0.015852f,0.000000f,0.593848f,0.000000f,0.225554f,0.000000f,0.261144f,-0.207389f,0.000000f};

const float layer3_weights[16] = {0.455272f,-0.118378f,-0.487103f,-1.089888f,0.932755f,0.853220f,0.136351f,-0.268447f,-0.245905f,0.859944f,0.366902f,-0.599738f,-0.537349f,-0.538096f,0.393156f,0.268778f};

const float layer3_bias[1] = {-0.206275f};

#endif // WEIGHTS_H
